<?xml version="1.0"?>
<opencv_storage>
<stage6>
  <maxWeakCount>15</maxWeakCount>
  <stageThreshold>-1.1900141239166260e+00</stageThreshold>
  <weakClassifiers>
    <_>
      <internalNodes>
        0 -1 40452 2.3081062361598015e-02</internalNodes>
      <leafValues>
        -2.9385966062545776e-01 5.1421803236007690e-01</leafValues></_>
    <_>
      <internalNodes>
        0 -1 56960 -1.4474222436547279e-02</internalNodes>
      <leafValues>
        6.3839882612228394e-01 -2.4530449509620667e-01</leafValues></_>
    <_>
      <internalNodes>
        0 -1 57978 3.0517962295562029e-03</internalNodes>
      <leafValues>
        -2.0847852528095245e-01 6.7353302240371704e-01</leafValues></_>
    <_>
      <internalNodes>
        0 -1 53447 2.5377296842634678e-03</internalNodes>
      <leafValues>
        -3.3818134665489197e-01 4.2570427060127258e-01</leafValues></_>
    <_>
      <internalNodes>
        0 -1 18892 5.4120149463415146e-02</internalNodes>
      <leafValues>
        -2.9422107338905334e-01 3.7623324990272522e-01</leafValues></_>
    <_>
      <internalNodes>
        0 -1 56642 -6.6288083326071501e-04</internalNodes>
      <leafValues>
        3.4670758247375488e-01 -3.1647738814353943e-01</leafValues></_>
    <_>
      <internalNodes>
        0 -1 44612 -2.3964542895555496e-02</internalNodes>
      <leafValues>
        4.1400340199470520e-01 -2.7325391769409180e-01</leafValues></_>
    <_>
      <internalNodes>
        0 -1 34421 -4.2111087590456009e-02</internalNodes>
      <leafValues>
        -5.9394001960754395e-01 1.2719315290451050e-01</leafValues></_>
    <_>
      <internalNodes>
        0 -1 53678 -5.3369719535112381e-03</internalNodes>
      <leafValues>
        6.6104298830032349e-01 -1.6527886688709259e-01</leafValues></_>
    <_>
      <internalNodes>
        0 -1 38177 -7.1612386964261532e-03</internalNodes>
      <leafValues>
        5.8116114139556885e-01 -2.2882375121116638e-01</leafValues></_>
    <_>
      <internalNodes>
        0 -1 53508 1.7783186631277204e-03</internalNodes>
      <leafValues>
        1.2928064167499542e-01 -7.8569251298904419e-01</leafValues></_>
    <_>
      <internalNodes>
        0 -1 43225 -3.4681549295783043e-03</internalNodes>
      <leafValues>
        6.2145817279815674e-01 -1.5741991996765137e-01</leafValues></_>
    <_>
      <internalNodes>
        0 -1 60872 -2.0751729607582092e-03</internalNodes>
      <leafValues>
        -6.1723059415817261e-01 1.4936275780200958e-01</leafValues></_>
    <_>
      <internalNodes>
        0 -1 60801 -9.8045589402318001e-03</internalNodes>
      <leafValues>
        5.1420694589614868e-01 -1.7537881433963776e-01</leafValues></_>
    <_>
      <internalNodes>
        0 -1 8314 -5.6703414884395897e-05</internalNodes>
      <leafValues>
        -3.4579762816429138e-01 2.5542622804641724e-01</leafValues></_></weakClassifiers></stage6>
</opencv_storage>
