<?xml version="1.0"?>
<opencv_storage>
<stage2>
  <maxWeakCount>11</maxWeakCount>
  <stageThreshold>-1.4394732713699341e+00</stageThreshold>
  <weakClassifiers>
    <_>
      <internalNodes>
        0 -1 37852 3.1716682016849518e-02</internalNodes>
      <leafValues>
        -3.2537314295768738e-01 8.2222223281860352e-01</leafValues></_>
    <_>
      <internalNodes>
        0 -1 52710 -1.4212562702596188e-02</internalNodes>
      <leafValues>
        4.5248863101005554e-01 -6.9850116968154907e-01</leafValues></_>
    <_>
      <internalNodes>
        0 -1 44597 -2.4950973689556122e-02</internalNodes>
      <leafValues>
        7.1587806940078735e-01 -3.2062974572181702e-01</leafValues></_>
    <_>
      <internalNodes>
        0 -1 50439 2.3465747013688087e-02</internalNodes>
      <leafValues>
        -2.2912624478340149e-01 5.9665369987487793e-01</leafValues></_>
    <_>
      <internalNodes>
        0 -1 43074 -5.9488840401172638e-02</internalNodes>
      <leafValues>
        1.3033843040466309e-01 -7.6322072744369507e-01</leafValues></_>
    <_>
      <internalNodes>
        0 -1 52931 -3.2691354863345623e-04</internalNodes>
      <leafValues>
        -5.8720397949218750e-01 1.9789418578147888e-01</leafValues></_>
    <_>
      <internalNodes>
        0 -1 58169 2.7200491167604923e-03</internalNodes>
      <leafValues>
        -2.3251546919345856e-01 4.7152134776115417e-01</leafValues></_>
    <_>
      <internalNodes>
        0 -1 72547 1.8074149265885353e-03</internalNodes>
      <leafValues>
        -2.9399371147155762e-01 4.3131625652313232e-01</leafValues></_>
    <_>
      <internalNodes>
        0 -1 31285 6.4470460638403893e-03</internalNodes>
      <leafValues>
        -5.6790095567703247e-01 1.7286741733551025e-01</leafValues></_>
    <_>
      <internalNodes>
        0 -1 60539 6.6709035309031606e-04</internalNodes>
      <leafValues>
        -2.9314127564430237e-01 3.5559564828872681e-01</leafValues></_>
    <_>
      <internalNodes>
        0 -1 61546 -1.2278100475668907e-02</internalNodes>
      <leafValues>
        4.6180233359336853e-01 -1.9602939486503601e-01</leafValues></_></weakClassifiers></stage2>
</opencv_storage>
