<?xml version="1.0"?>
<opencv_storage>
<stage17>
  <maxWeakCount>42</maxWeakCount>
  <stageThreshold>-7.1887236833572388e-01</stageThreshold>
  <weakClassifiers>
    <_>
      <internalNodes>
        0 -1 49492 -3.3418662846088409e-02</internalNodes>
      <leafValues>
        4.6192893385887146e-01 3.8081806153059006e-02</leafValues></_>
    <_>
      <internalNodes>
        0 -1 11464 -1.4458552002906799e-01</internalNodes>
      <leafValues>
        -2.2983667254447937e-01 1.9033725559711456e-01</leafValues></_>
    <_>
      <internalNodes>
        0 -1 70698 4.2952373623847961e-03</internalNodes>
      <leafValues>
        -1.3250809907913208e-01 3.2921072840690613e-01</leafValues></_>
    <_>
      <internalNodes>
        0 -1 53452 -1.1040449142456055e-02</internalNodes>
      <leafValues>
        2.7863466739654541e-01 -1.6804805397987366e-01</leafValues></_>
    <_>
      <internalNodes>
        0 -1 48761 -9.9963415414094925e-03</internalNodes>
      <leafValues>
        5.6960493326187134e-01 -9.2996522784233093e-02</leafValues></_>
    <_>
      <internalNodes>
        0 -1 32969 -4.1524108499288559e-02</internalNodes>
      <leafValues>
        3.1493547558784485e-01 -1.8129648268222809e-01</leafValues></_>
    <_>
      <internalNodes>
        0 -1 52345 1.1533163487911224e-02</internalNodes>
      <leafValues>
        -6.1451893299818039e-02 5.9903216361999512e-01</leafValues></_>
    <_>
      <internalNodes>
        0 -1 70501 -3.5883300006389618e-03</internalNodes>
      <leafValues>
        1.8979850411415100e-01 -2.3832787573337555e-01</leafValues></_>
    <_>
      <internalNodes>
        0 -1 53443 2.2206829453352839e-04</internalNodes>
      <leafValues>
        1.0037653148174286e-01 -4.0614262223243713e-01</leafValues></_>
    <_>
      <internalNodes>
        0 -1 29891 5.0973687320947647e-03</internalNodes>
      <leafValues>
        -3.3154517412185669e-01 1.1746764928102493e-01</leafValues></_>
    <_>
      <internalNodes>
        0 -1 46805 1.8612062558531761e-03</internalNodes>
      <leafValues>
        1.4041653275489807e-01 -2.2134096920490265e-01</leafValues></_>
    <_>
      <internalNodes>
        0 -1 52729 5.1655285060405731e-03</internalNodes>
      <leafValues>
        6.9231681525707245e-02 -5.3577548265457153e-01</leafValues></_>
    <_>
      <internalNodes>
        0 -1 47930 -5.8391555212438107e-03</internalNodes>
      <leafValues>
        4.6294111013412476e-01 -7.9907357692718506e-02</leafValues></_>
    <_>
      <internalNodes>
        0 -1 53207 1.1827671551145613e-04</internalNodes>
      <leafValues>
        1.7297130823135376e-01 -2.1217042207717896e-01</leafValues></_>
    <_>
      <internalNodes>
        0 -1 1449 -4.8453730414621532e-04</internalNodes>
      <leafValues>
        -2.3076772689819336e-01 1.4723771810531616e-01</leafValues></_>
    <_>
      <internalNodes>
        0 -1 61847 -3.1316769309341908e-03</internalNodes>
      <leafValues>
        -4.0281988680362701e-02 6.2654817104339600e-01</leafValues></_>
    <_>
      <internalNodes>
        0 -1 26577 4.3134115636348724e-02</internalNodes>
      <leafValues>
        4.1185751557350159e-02 -8.6952084302902222e-01</leafValues></_>
    <_>
      <internalNodes>
        0 -1 55511 -1.2618970125913620e-02</internalNodes>
      <leafValues>
        -3.1673821806907654e-01 1.0295509546995163e-01</leafValues></_>
    <_>
      <internalNodes>
        0 -1 43272 1.4344127848744392e-02</internalNodes>
      <leafValues>
        -4.7675937414169312e-02 8.0463528633117676e-01</leafValues></_>
    <_>
      <internalNodes>
        0 -1 4070 -4.7827452421188354e-02</internalNodes>
      <leafValues>
        5.0899845361709595e-01 -5.0434134900569916e-02</leafValues></_>
    <_>
      <internalNodes>
        0 -1 34425 5.0022877752780914e-02</internalNodes>
      <leafValues>
        9.0467825531959534e-02 -3.6240506172180176e-01</leafValues></_>
    <_>
      <internalNodes>
        0 -1 31229 -2.3734397254884243e-03</internalNodes>
      <leafValues>
        2.3085486888885498e-01 -1.5306128561496735e-01</leafValues></_>
    <_>
      <internalNodes>
        0 -1 68253 1.9538390915840864e-03</internalNodes>
      <leafValues>
        -1.5482512116432190e-01 2.0227864384651184e-01</leafValues></_>
    <_>
      <internalNodes>
        0 -1 75209 2.7493799105286598e-02</internalNodes>
      <leafValues>
        -6.4100094139575958e-02 5.1187372207641602e-01</leafValues></_>
    <_>
      <internalNodes>
        0 -1 52001 -1.1593710631132126e-02</internalNodes>
      <leafValues>
        1.3864558935165405e-01 -2.6303139328956604e-01</leafValues></_>
    <_>
      <internalNodes>
        0 -1 39499 -1.5481727896258235e-03</internalNodes>
      <leafValues>
        -4.1956079006195068e-01 8.1552922725677490e-02</leafValues></_>
    <_>
      <internalNodes>
        0 -1 14624 -4.5003823470324278e-04</internalNodes>
      <leafValues>
        -2.0642344653606415e-01 1.5588179230690002e-01</leafValues></_>
    <_>
      <internalNodes>
        0 -1 43557 -5.7798484340310097e-03</internalNodes>
      <leafValues>
        1.4953620731830597e-01 -2.3001834750175476e-01</leafValues></_>
    <_>
      <internalNodes>
        0 -1 56058 -1.0226207086816430e-03</internalNodes>
      <leafValues>
        1.4684940874576569e-01 -2.2821082174777985e-01</leafValues></_>
    <_>
      <internalNodes>
        0 -1 58171 7.2989203035831451e-03</internalNodes>
      <leafValues>
        -8.9788392186164856e-02 3.9786693453788757e-01</leafValues></_>
    <_>
      <internalNodes>
        0 -1 57821 1.6827380284667015e-02</internalNodes>
      <leafValues>
        8.1827871501445770e-02 -5.6251311302185059e-01</leafValues></_>
    <_>
      <internalNodes>
        0 -1 48984 -1.2204624945297837e-03</internalNodes>
      <leafValues>
        2.2596855461597443e-01 -1.6616983711719513e-01</leafValues></_>
    <_>
      <internalNodes>
        0 -1 62031 1.2386689893901348e-02</internalNodes>
      <leafValues>
        7.6404742896556854e-02 -4.7220820188522339e-01</leafValues></_>
    <_>
      <internalNodes>
        0 -1 69601 -3.7527563981711864e-03</internalNodes>
      <leafValues>
        -8.7637823820114136e-01 2.7973931282758713e-02</leafValues></_>
    <_>
      <internalNodes>
        0 -1 72861 -7.8042671084403992e-03</internalNodes>
      <leafValues>
        3.2403320074081421e-01 -9.8152838647365570e-02</leafValues></_>
    <_>
      <internalNodes>
        0 -1 56502 6.8960376083850861e-03</internalNodes>
      <leafValues>
        -9.7844943404197693e-02 3.4285223484039307e-01</leafValues></_>
    <_>
      <internalNodes>
        0 -1 43645 -2.4106388445943594e-03</internalNodes>
      <leafValues>
        -3.1419751048088074e-01 1.0855731368064880e-01</leafValues></_>
    <_>
      <internalNodes>
        0 -1 37165 1.8928796052932739e-02</internalNodes>
      <leafValues>
        -5.3675722330808640e-02 6.9293302297592163e-01</leafValues></_>
    <_>
      <internalNodes>
        0 -1 58301 -7.4196405708789825e-02</internalNodes>
      <leafValues>
        5.7241493463516235e-01 -4.5582547783851624e-02</leafValues></_>
    <_>
      <internalNodes>
        0 -1 6430 7.4288761243224144e-04</internalNodes>
      <leafValues>
        1.7907162010669708e-01 -1.7739237844944000e-01</leafValues></_>
    <_>
      <internalNodes>
        0 -1 77793 9.4052907079458237e-03</internalNodes>
      <leafValues>
        5.2287887781858444e-02 -6.0223001241683960e-01</leafValues></_>
    <_>
      <internalNodes>
        0 -1 25100 7.7671632170677185e-02</internalNodes>
      <leafValues>
        4.3766882270574570e-02 -6.7506670951843262e-01</leafValues></_></weakClassifiers></stage17>
</opencv_storage>
