<?xml version="1.0"?>
<opencv_storage>
<stage13>
  <maxWeakCount>39</maxWeakCount>
  <stageThreshold>-8.2943773269653320e-01</stageThreshold>
  <weakClassifiers>
    <_>
      <internalNodes>
        0 -1 52078 -5.6406673043966293e-02</internalNodes>
      <leafValues>
        5.1051050424575806e-01 -6.3091479241847992e-02</leafValues></_>
    <_>
      <internalNodes>
        0 -1 49475 -1.4998069033026695e-02</internalNodes>
      <leafValues>
        2.1117888391017914e-01 -3.0089378356933594e-01</leafValues></_>
    <_>
      <internalNodes>
        0 -1 52945 -1.0321144014596939e-02</internalNodes>
      <leafValues>
        2.5263896584510803e-01 -2.4526016414165497e-01</leafValues></_>
    <_>
      <internalNodes>
        0 -1 48236 8.4638763219118118e-03</internalNodes>
      <leafValues>
        -2.1851918101310730e-01 2.7217867970466614e-01</leafValues></_>
    <_>
      <internalNodes>
        0 -1 58125 7.9242663923650980e-04</internalNodes>
      <leafValues>
        -2.1393330395221710e-01 2.6542055606842041e-01</leafValues></_>
    <_>
      <internalNodes>
        0 -1 64743 6.5814200788736343e-03</internalNodes>
      <leafValues>
        7.5567558407783508e-02 -5.5253100395202637e-01</leafValues></_>
    <_>
      <internalNodes>
        0 -1 47511 5.0457837060093880e-03</internalNodes>
      <leafValues>
        -1.8325167894363403e-01 2.3289026319980621e-01</leafValues></_>
    <_>
      <internalNodes>
        0 -1 70798 -4.1809063404798508e-03</internalNodes>
      <leafValues>
        6.1902606487274170e-01 -7.6067194342613220e-02</leafValues></_>
    <_>
      <internalNodes>
        0 -1 61489 3.2553941011428833e-02</internalNodes>
      <leafValues>
        5.7752370834350586e-02 -6.9502711296081543e-01</leafValues></_>
    <_>
      <internalNodes>
        0 -1 43073 1.1816147714853287e-02</internalNodes>
      <leafValues>
        8.6412250995635986e-02 -4.9318882822990417e-01</leafValues></_>
    <_>
      <internalNodes>
        0 -1 38953 -2.3079240054357797e-04</internalNodes>
      <leafValues>
        1.6683365404605865e-01 -2.3779068887233734e-01</leafValues></_>
    <_>
      <internalNodes>
        0 -1 48225 8.0951293930411339e-03</internalNodes>
      <leafValues>
        -9.5162406563758850e-02 5.2287232875823975e-01</leafValues></_>
    <_>
      <internalNodes>
        0 -1 53443 1.0751672089099884e-03</internalNodes>
      <leafValues>
        6.7627705633640289e-02 -6.2868690490722656e-01</leafValues></_>
    <_>
      <internalNodes>
        0 -1 52658 -1.6984850168228149e-02</internalNodes>
      <leafValues>
        5.7928550243377686e-01 -7.4739657342433929e-02</leafValues></_>
    <_>
      <internalNodes>
        0 -1 64533 -1.2533772736787796e-02</internalNodes>
      <leafValues>
        -6.6233372688293457e-01 7.2277300059795380e-02</leafValues></_>
    <_>
      <internalNodes>
        0 -1 21629 6.8041011691093445e-03</internalNodes>
      <leafValues>
        7.4578009545803070e-02 -4.5784863829612732e-01</leafValues></_>
    <_>
      <internalNodes>
        0 -1 19207 5.3230375051498413e-02</internalNodes>
      <leafValues>
        -8.9867070317268372e-02 4.2579334974288940e-01</leafValues></_>
    <_>
      <internalNodes>
        0 -1 44835 -5.6720632128417492e-03</internalNodes>
      <leafValues>
        3.4060949087142944e-01 -1.1011098325252533e-01</leafValues></_>
    <_>
      <internalNodes>
        0 -1 44537 1.6350120306015015e-02</internalNodes>
      <leafValues>
        -6.0248743742704391e-02 6.2843596935272217e-01</leafValues></_>
    <_>
      <internalNodes>
        0 -1 38863 -2.6804546359926462e-03</internalNodes>
      <leafValues>
        -2.8694850206375122e-01 1.4020836353302002e-01</leafValues></_>
    <_>
      <internalNodes>
        0 -1 76789 -5.4509881883859634e-03</internalNodes>
      <leafValues>
        2.4385316669940948e-01 -1.7682537436485291e-01</leafValues></_>
    <_>
      <internalNodes>
        0 -1 52580 -1.8948823213577271e-02</internalNodes>
      <leafValues>
        -4.7061258554458618e-01 8.0104321241378784e-02</leafValues></_>
    <_>
      <internalNodes>
        0 -1 65075 -1.8404526636004448e-02</internalNodes>
      <leafValues>
        -5.3648054599761963e-01 6.8126216530799866e-02</leafValues></_>
    <_>
      <internalNodes>
        0 -1 32685 -7.5095355510711670e-02</internalNodes>
      <leafValues>
        2.3747350275516510e-01 -1.6110518574714661e-01</leafValues></_>
    <_>
      <internalNodes>
        0 -1 42905 3.6054993979632854e-03</internalNodes>
      <leafValues>
        -1.8098147213459015e-01 1.9729129970073700e-01</leafValues></_>
    <_>
      <internalNodes>
        0 -1 48508 -7.8487166319973767e-05</internalNodes>
      <leafValues>
        -2.2335611283779144e-01 1.9731372594833374e-01</leafValues></_>
    <_>
      <internalNodes>
        0 -1 41813 -1.4303209260106087e-02</internalNodes>
      <leafValues>
        -6.7516840994358063e-02 5.9319442510604858e-01</leafValues></_>
    <_>
      <internalNodes>
        0 -1 31226 -9.4883721321821213e-03</internalNodes>
      <leafValues>
        3.7688148021697998e-01 -1.0806353390216827e-01</leafValues></_>
    <_>
      <internalNodes>
        0 -1 21226 -2.0911548286676407e-02</internalNodes>
      <leafValues>
        6.1696964502334595e-01 -6.0259129852056503e-02</leafValues></_>
    <_>
      <internalNodes>
        0 -1 14709 -4.4104363769292831e-03</internalNodes>
      <leafValues>
        -4.8522153496742249e-01 7.9962089657783508e-02</leafValues></_>
    <_>
      <internalNodes>
        0 -1 52546 -3.3684088848531246e-03</internalNodes>
      <leafValues>
        1.4507964253425598e-01 -2.5629314780235291e-01</leafValues></_>
    <_>
      <internalNodes>
        0 -1 65231 -1.0064410977065563e-02</internalNodes>
      <leafValues>
        6.3337111473083496e-01 -5.4912738502025604e-02</leafValues></_>
    <_>
      <internalNodes>
        0 -1 62053 1.9125757971778512e-03</internalNodes>
      <leafValues>
        -6.4706303179264069e-02 5.2000886201858521e-01</leafValues></_>
    <_>
      <internalNodes>
        0 -1 53514 -1.0719931684434414e-02</internalNodes>
      <leafValues>
        -4.3749406933784485e-01 1.1024645715951920e-01</leafValues></_>
    <_>
      <internalNodes>
        0 -1 44315 -9.6213668584823608e-03</internalNodes>
      <leafValues>
        6.4595872163772583e-01 -7.5861647725105286e-02</leafValues></_>
    <_>
      <internalNodes>
        0 -1 78138 2.2853101836517453e-04</internalNodes>
      <leafValues>
        -1.3453528285026550e-01 2.6424542069435120e-01</leafValues></_>
    <_>
      <internalNodes>
        0 -1 34256 -1.1323470389470458e-03</internalNodes>
      <leafValues>
        -2.6403108239173889e-01 1.3968355953693390e-01</leafValues></_>
    <_>
      <internalNodes>
        0 -1 53867 6.6072359913960099e-05</internalNodes>
      <leafValues>
        1.1537514626979828e-01 -3.5513901710510254e-01</leafValues></_>
    <_>
      <internalNodes>
        0 -1 61508 5.7502469280734658e-04</internalNodes>
      <leafValues>
        4.3952997773885727e-02 -7.6168584823608398e-01</leafValues></_></weakClassifiers></stage13>
</opencv_storage>
