<?xml version="1.0"?>
<opencv_storage>
<stage19>
  <maxWeakCount>39</maxWeakCount>
  <stageThreshold>-7.0880943536758423e-01</stageThreshold>
  <weakClassifiers>
    <_>
      <internalNodes>
        0 -1 29301 2.0427938550710678e-02</internalNodes>
      <leafValues>
        -1.4925372786819935e-02 4.4332855939865112e-01</leafValues></_>
    <_>
      <internalNodes>
        0 -1 64768 -2.4252652656286955e-03</internalNodes>
      <leafValues>
        1.7191046476364136e-01 -3.3847719430923462e-01</leafValues></_>
    <_>
      <internalNodes>
        0 -1 41625 -2.2525968030095100e-02</internalNodes>
      <leafValues>
        2.7373340725898743e-01 -1.8822488188743591e-01</leafValues></_>
    <_>
      <internalNodes>
        0 -1 43274 3.9890952408313751e-02</internalNodes>
      <leafValues>
        -6.7141361534595490e-02 6.2159878015518188e-01</leafValues></_>
    <_>
      <internalNodes>
        0 -1 64335 3.3643706701695919e-03</internalNodes>
      <leafValues>
        -2.0746518671512604e-01 2.7282860875129700e-01</leafValues></_>
    <_>
      <internalNodes>
        0 -1 64330 -2.8965172823518515e-03</internalNodes>
      <leafValues>
        3.6796307563781738e-01 -1.3355915248394012e-01</leafValues></_>
    <_>
      <internalNodes>
        0 -1 50499 -1.9118115305900574e-02</internalNodes>
      <leafValues>
        2.9114693403244019e-01 -1.1259643733501434e-01</leafValues></_>
    <_>
      <internalNodes>
        0 -1 52691 5.5578895844519138e-03</internalNodes>
      <leafValues>
        -7.5933776795864105e-02 4.1843241453170776e-01</leafValues></_>
    <_>
      <internalNodes>
        0 -1 39643 5.7569537311792374e-03</internalNodes>
      <leafValues>
        1.1057366430759430e-01 -3.3468559384346008e-01</leafValues></_>
    <_>
      <internalNodes>
        0 -1 43030 -8.4211360663175583e-03</internalNodes>
      <leafValues>
        -4.7259378433227539e-01 5.9124924242496490e-02</leafValues></_>
    <_>
      <internalNodes>
        0 -1 61444 -4.5048226602375507e-03</internalNodes>
      <leafValues>
        3.6472132802009583e-01 -9.5049738883972168e-02</leafValues></_>
    <_>
      <internalNodes>
        0 -1 47738 -4.4989388436079025e-02</internalNodes>
      <leafValues>
        -1. 2.7840115129947662e-02</leafValues></_>
    <_>
      <internalNodes>
        0 -1 48381 2.7791658416390419e-02</internalNodes>
      <leafValues>
        4.8593297600746155e-02 -6.3442271947860718e-01</leafValues></_>
    <_>
      <internalNodes>
        0 -1 51335 2.6141811162233353e-02</internalNodes>
      <leafValues>
        4.2746476829051971e-02 -8.2265734672546387e-01</leafValues></_>
    <_>
      <internalNodes>
        0 -1 28076 2.3549359291791916e-02</internalNodes>
      <leafValues>
        2.5569891557097435e-02 -9.2620503902435303e-01</leafValues></_>
    <_>
      <internalNodes>
        0 -1 53542 5.4295011796057224e-04</internalNodes>
      <leafValues>
        -2.6827549934387207e-01 1.3419304788112640e-01</leafValues></_>
    <_>
      <internalNodes>
        0 -1 12718 -4.5779831707477570e-02</internalNodes>
      <leafValues>
        2.7621629834175110e-01 -1.2270966172218323e-01</leafValues></_>
    <_>
      <internalNodes>
        0 -1 54986 2.3228895664215088e-01</internalNodes>
      <leafValues>
        -5.1451202481985092e-02 8.4655320644378662e-01</leafValues></_>
    <_>
      <internalNodes>
        0 -1 47660 6.6370695829391479e-02</internalNodes>
      <leafValues>
        -3.6621101200580597e-02 6.5503752231597900e-01</leafValues></_>
    <_>
      <internalNodes>
        0 -1 39174 7.4515497544780374e-04</internalNodes>
      <leafValues>
        -3.8890115916728973e-02 7.3194998502731323e-01</leafValues></_>
    <_>
      <internalNodes>
        0 -1 49437 1.4153996482491493e-02</internalNodes>
      <leafValues>
        6.7123413085937500e-02 -6.5044581890106201e-01</leafValues></_>
    <_>
      <internalNodes>
        0 -1 60545 -6.2137767672538757e-03</internalNodes>
      <leafValues>
        4.7516578435897827e-01 -8.4162145853042603e-02</leafValues></_>
    <_>
      <internalNodes>
        0 -1 54095 1.7042307183146477e-02</internalNodes>
      <leafValues>
        -1.1660352349281311e-01 2.7953210473060608e-01</leafValues></_>
    <_>
      <internalNodes>
        0 -1 70686 -7.1811325848102570e-02</internalNodes>
      <leafValues>
        6.1913847923278809e-01 -6.2236137688159943e-02</leafValues></_>
    <_>
      <internalNodes>
        0 -1 54994 2.8316292911767960e-02</internalNodes>
      <leafValues>
        -5.5222649127244949e-02 5.4695522785186768e-01</leafValues></_>
    <_>
      <internalNodes>
        0 -1 65619 4.7204177826642990e-03</internalNodes>
      <leafValues>
        7.6547212898731232e-02 -5.3774970769882202e-01</leafValues></_>
    <_>
      <internalNodes>
        0 -1 62356 -8.0045463982969522e-04</internalNodes>
      <leafValues>
        2.2022202610969543e-01 -1.6447915136814117e-01</leafValues></_>
    <_>
      <internalNodes>
        0 -1 69656 6.7708939313888550e-03</internalNodes>
      <leafValues>
        -1.1730137467384338e-01 2.9410788416862488e-01</leafValues></_>
    <_>
      <internalNodes>
        0 -1 56163 2.5108385831117630e-02</internalNodes>
      <leafValues>
        7.1920298039913177e-02 -5.2260297536849976e-01</leafValues></_>
    <_>
      <internalNodes>
        0 -1 53870 -2.6711141690611839e-03</internalNodes>
      <leafValues>
        4.1619208455085754e-01 -1.1470159888267517e-01</leafValues></_>
    <_>
      <internalNodes>
        0 -1 58994 -6.8156807683408260e-03</internalNodes>
      <leafValues>
        -3.2742577791213989e-01 1.2833026051521301e-01</leafValues></_>
    <_>
      <internalNodes>
        0 -1 8133 -1.4894169569015503e-01</internalNodes>
      <leafValues>
        9.2265421152114868e-01 -4.4376555830240250e-02</leafValues></_>
    <_>
      <internalNodes>
        0 -1 43807 5.3126369602978230e-03</internalNodes>
      <leafValues>
        -9.9713519215583801e-02 3.5040012001991272e-01</leafValues></_>
    <_>
      <internalNodes>
        0 -1 56408 1.3650687411427498e-02</internalNodes>
      <leafValues>
        -6.4321652054786682e-02 5.9057998657226562e-01</leafValues></_>
    <_>
      <internalNodes>
        0 -1 41213 -1.8248748779296875e-01</internalNodes>
      <leafValues>
        2.3260785639286041e-01 -1.6520580649375916e-01</leafValues></_>
    <_>
      <internalNodes>
        0 -1 7185 2.1802040282636881e-04</internalNodes>
      <leafValues>
        1.8758165836334229e-01 -1.8571978807449341e-01</leafValues></_>
    <_>
      <internalNodes>
        0 -1 67634 -6.1939703300595284e-03</internalNodes>
      <leafValues>
        7.3062205314636230e-01 -4.8807654529809952e-02</leafValues></_>
    <_>
      <internalNodes>
        0 -1 10 8.6274826899170876e-03</internalNodes>
      <leafValues>
        4.9645029008388519e-02 -8.5900151729583740e-01</leafValues></_>
    <_>
      <internalNodes>
        0 -1 31721 -1.3729643076658249e-02</internalNodes>
      <leafValues>
        3.6765288561582565e-02 -7.1284216642379761e-01</leafValues></_></weakClassifiers></stage19>
</opencv_storage>
